booster[0]
0:[f0<-1.00136e-05] yes=1,no=2,missing=1,gain=9.00675,cover=21
	1:[f3<39] yes=3,no=4,missing=3,gain=3.19787,cover=10.25
		3:leaf=-0.909091,cover=1.75
		4:[f3<61.5] yes=7,no=8,missing=7,gain=5.62929,cover=8.5
			7:[f3<51.5] yes=11,no=12,missing=11,gain=0.405797,cover=4.75
				11:leaf=0.222222,cover=1.25
				12:leaf=1.11111,cover=3.5
			8:[f2<-1.00136e-05] yes=13,no=14,missing=13,gain=0.361134,cover=3.75
				13:[f3<67.5] yes=15,no=16,missing=15,gain=1.42308,cover=2.25
					15:leaf=0.5,cover=1
					16:leaf=-0.666667,cover=1.25
				14:leaf=-0.8,cover=1.5
	2:[f3<62.5] yes=5,no=6,missing=5,gain=0.588164,cover=10.75
		5:leaf=-1.36842,cover=8.5
		6:[f3<65.5] yes=9,no=10,missing=9,gain=0.307692,cover=2.25
			9:leaf=-0,cover=1
			10:leaf=-0.666667,cover=1.25
booster[1]
0:[f3<53.5] yes=1,no=2,missing=1,gain=1.233,cover=16.2397
	1:[f0<-1.00136e-05] yes=3,no=4,missing=3,gain=0.235218,cover=5.902
		3:[f2<-1.00136e-05] yes=7,no=8,missing=7,gain=0.324221,cover=2.66767
			7:leaf=-0.416187,cover=1.60189
			8:leaf=0.143253,cover=1.06578
		4:leaf=-0.722073,cover=3.23434
	2:[f3<57.5] yes=5,no=6,missing=5,gain=2.28004,cover=10.3377
		5:leaf=0.734631,cover=2.08826
		6:[f3<64.5] yes=9,no=10,missing=9,gain=0.576289,cover=8.24939
			9:[f3<61.5] yes=11,no=12,missing=11,gain=0.520244,cover=4.85999
				11:leaf=-0.0681728,cover=2.46091
				12:leaf=-0.703358,cover=2.39908
			10:[f0<-1.00136e-05] yes=13,no=14,missing=13,gain=0.0666218,cover=3.3894
				13:leaf=0.145369,cover=2.01861
				14:leaf=-0.082765,cover=1.37079
booster[2]
0:[f3<31.5] yes=1,no=2,missing=1,gain=0.994684,cover=14.4559
	1:leaf=-0.725791,cover=1.20749
	2:[f0<-1.00136e-05] yes=3,no=4,missing=3,gain=0.43832,cover=13.2484
		3:[f3<68.5] yes=5,no=6,missing=5,gain=0.715236,cover=7.18931
			5:[f7<-1.00136e-05] yes=9,no=10,missing=9,gain=0.284033,cover=6.038
				9:leaf=0.488874,cover=2.69973
				10:[f2<-1.00136e-05] yes=15,no=16,missing=15,gain=0.866298,cover=3.33827
					15:leaf=0.386262,cover=2.16492
					16:leaf=-0.435249,cover=1.17335
			6:leaf=-0.372583,cover=1.15131
		4:[f7<-1.00136e-05] yes=7,no=8,missing=7,gain=0.221549,cover=6.05906
			7:[f6<-1.00136e-05] yes=11,no=12,missing=11,gain=0.00975752,cover=3.33585
				11:leaf=-0.135091,cover=1.77513
				12:leaf=-0.402298,cover=1.56072
			8:[f3<61.5] yes=13,no=14,missing=13,gain=0.0545174,cover=2.72321
				13:leaf=-0.0736994,cover=1.61054
				14:leaf=0.143768,cover=1.11267
booster[3]
0:[f5<-1.00136e-05] yes=1,no=2,missing=1,gain=0.291621,cover=13.0014
	1:[f3<56.5] yes=3,no=4,missing=3,gain=0.296743,cover=11.8614
		3:[f3<32.5] yes=5,no=6,missing=5,gain=0.767718,cover=3.7931
			5:leaf=-0.312716,cover=1.30799
			6:[f3<53.5] yes=9,no=10,missing=9,gain=0.0421358,cover=2.48511
				9:leaf=0.151712,cover=1.42147
				10:leaf=0.569316,cover=1.06365
		4:[f3<58.5] yes=7,no=8,missing=7,gain=0.288247,cover=8.06826
			7:leaf=-0.449068,cover=1.2372
			8:[f3<60.5] yes=11,no=12,missing=11,gain=0.218973,cover=6.83106
				11:leaf=0.222998,cover=1.51689
				12:[f2<-1.00136e-05] yes=13,no=14,missing=13,gain=0.216326,cover=5.31417
					13:[f3<64.5] yes=15,no=16,missing=15,gain=0.0556476,cover=4.03291
						15:leaf=-0.356278,cover=1.26271
						16:[f3<67.5] yes=17,no=18,missing=17,gain=0.0487459,cover=2.7702
							17:leaf=0.0423429,cover=1.23857
							18:leaf=-0.173485,cover=1.53163
					14:leaf=0.154285,cover=1.28126
	2:leaf=-0.437401,cover=1.14007
booster[4]
0:[f4<-1.00136e-05] yes=1,no=2,missing=1,gain=0.327443,cover=12.76
	1:[f3<54.5] yes=3,no=4,missing=3,gain=0.391578,cover=11.6962
		3:[f0<-1.00136e-05] yes=5,no=6,missing=5,gain=0.100243,cover=3.19493
			5:leaf=-0.0766397,cover=1.41881
			6:leaf=-0.473333,cover=1.77612
		4:[f3<57.5] yes=7,no=8,missing=7,gain=0.233588,cover=8.50126
			7:leaf=0.307528,cover=1.14447
			8:[f3<66.5] yes=9,no=10,missing=9,gain=0.193483,cover=7.3568
				9:[f3<63.5] yes=11,no=12,missing=11,gain=0.0894609,cover=5.31245
					11:[f2<-1.00136e-05] yes=13,no=14,missing=13,gain=0.0373335,cover=3.80138
						13:[f3<60.5] yes=15,no=16,missing=15,gain=0.0176378,cover=2.05686
							15:leaf=0.0971158,cover=1.05058
							16:leaf=-0.0390881,cover=1.00628
						14:leaf=-0.124951,cover=1.74452
					12:leaf=-0.305334,cover=1.51107
				10:leaf=0.15303,cover=2.04435
	2:leaf=0.32368,cover=1.06381
booster[5]
0:[f3<32.5] yes=1,no=2,missing=1,gain=0.202925,cover=12.3398
	1:leaf=-0.29677,cover=1.26005
	2:[f3<47] yes=3,no=4,missing=3,gain=0.271826,cover=11.0798
		3:leaf=0.345466,cover=1.23939
		4:[f7<-1.00136e-05] yes=5,no=6,missing=5,gain=0.110205,cover=9.84037
			5:[f3<66.5] yes=7,no=8,missing=7,gain=0.150789,cover=4.40111
				7:leaf=-0.276771,cover=2.27269
				8:leaf=0.0468063,cover=2.12842
			6:[f2<-1.00136e-05] yes=9,no=10,missing=9,gain=0.13005,cover=5.43926
				9:[f3<58.5] yes=11,no=12,missing=11,gain=0.529277,cover=3.55116
					11:leaf=-0.235791,cover=1.3903
					12:[f3<61.5] yes=13,no=14,missing=13,gain=0.111476,cover=2.16086
						13:leaf=0.543864,cover=1.04246
						14:leaf=0.0710653,cover=1.1184
				10:leaf=-0.120634,cover=1.8881
booster[6]
0:[f4<-1.00136e-05] yes=1,no=2,missing=1,gain=0.170242,cover=12.0306
	1:[f3<53.5] yes=3,no=4,missing=3,gain=0.283698,cover=10.8919
		3:leaf=-0.306286,cover=2.11739
		4:[f3<57.5] yes=5,no=6,missing=5,gain=0.312135,cover=8.77446
			5:leaf=0.335615,cover=1.6591
			6:[f3<64.5] yes=7,no=8,missing=7,gain=0.14184,cover=7.11536
				7:[f2<-1.00136e-05] yes=9,no=10,missing=9,gain=0.0247509,cover=4.01684
					9:leaf=-0.223651,cover=2.20013
					10:leaf=-0.0443511,cover=1.81671
				8:[f3<67.5] yes=11,no=12,missing=11,gain=0.100104,cover=3.09852
					11:leaf=0.240929,cover=1.10811
					12:leaf=-0.0519394,cover=1.99042
	2:leaf=0.260167,cover=1.13877
booster[7]
0:[f3<32.5] yes=1,no=2,missing=1,gain=0.197457,cover=11.9813
	1:leaf=-0.265111,cover=1.19593
	2:[f3<56.5] yes=3,no=4,missing=3,gain=0.306775,cover=10.7854
		3:[f6<-1.00136e-05] yes=5,no=6,missing=5,gain=0.0724137,cover=3.03167
			5:leaf=0.402162,cover=1.41066
			6:leaf=0.0705344,cover=1.62101
		4:[f3<58.5] yes=7,no=8,missing=7,gain=0.112676,cover=7.7537
			7:leaf=-0.241201,cover=1.26529
			8:[f3<65.5] yes=9,no=10,missing=9,gain=0.0552068,cover=6.48841
				9:[f2<-1.00136e-05] yes=11,no=12,missing=11,gain=0.407982,cover=3.64093
					11:[f3<61.5] yes=15,no=16,missing=15,gain=0.00967593,cover=2.09978
						15:leaf=0.386804,cover=1.01897
						16:leaf=0.0974195,cover=1.08081
					12:leaf=-0.227347,cover=1.54115
				10:[f3<68.5] yes=13,no=14,missing=13,gain=0.0909914,cover=2.84748
					13:leaf=-0.190313,cover=1.5918
					14:leaf=0.0909942,cover=1.25568
booster[8]
0:[f2<-1.00136e-05] yes=1,no=2,missing=1,gain=0.243304,cover=11.8183
	1:[f3<58.5] yes=3,no=4,missing=3,gain=0.0824455,cover=8.66899
		3:[f3<56.5] yes=7,no=8,missing=7,gain=0.194386,cover=4.17696
			7:[f0<-1.00136e-05] yes=11,no=12,missing=11,gain=0.200633,cover=3.14686
				11:leaf=-0.211774,cover=1.49178
				12:leaf=0.183377,cover=1.65508
			8:leaf=-0.409993,cover=1.03009
		4:[f3<62.5] yes=9,no=10,missing=9,gain=0.159963,cover=4.49203
			9:leaf=0.210931,cover=1.48626
			10:[f3<67.5] yes=13,no=14,missing=13,gain=0.000921036,cover=3.00578
				13:leaf=-0.0424455,cover=1.47902
				14:leaf=-0.136137,cover=1.52676
	2:[f3<58.5] yes=5,no=6,missing=5,gain=0.0995766,cover=3.14931
		5:leaf=0.347267,cover=1.28762
		6:leaf=0.022496,cover=1.86169
booster[9]
0:[f5<-1.00136e-05] yes=1,no=2,missing=1,gain=0.232486,cover=12.0491
	1:[f3<32.5] yes=3,no=4,missing=3,gain=0.203656,cover=10.9962
		3:leaf=-0.239403,cover=1.14459
		4:[f3<49.5] yes=5,no=6,missing=5,gain=0.258366,cover=9.85156
			5:leaf=0.42213,cover=1.02418
			6:[f0<-1.00136e-05] yes=7,no=8,missing=7,gain=0.122395,cover=8.82738
				7:[f3<68.5] yes=9,no=10,missing=9,gain=0.38422,cover=4.54665
					9:[f2<-1.00136e-05] yes=13,no=14,missing=13,gain=0.104008,cover=3.49122
						13:leaf=0.35645,cover=2.44152
						14:leaf=-0.00161279,cover=1.0497
					10:leaf=-0.258477,cover=1.05543
				8:[f3<62.5] yes=11,no=12,missing=11,gain=0.420141,cover=4.28074
					11:[f3<56] yes=15,no=16,missing=15,gain=0.131082,cover=2.6222
						15:leaf=-0.0102133,cover=1.1535
						16:leaf=-0.427704,cover=1.4687
					12:leaf=0.229973,cover=1.65853
	2:leaf=-0.316969,cover=1.05291
